#ifndef TRANSFORMER_ARRAY_DATA_H
#define TRANSFORMER_ARRAY_DATA_H

static float keyweight[] = {0.33490053,-0.24101453,-1.1547648,-0.008498862,-0.15061432,-0.08339439,0.9517389,-0.33466822,-0.07832916,-0.25415993,-0.13419448,-0.32747522,-0.14858307,0.7674131,0.028297186,0.54166615,-0.13326724,1.448934,-0.45714208,0.028161287,0.52607745,0.6692085,-0.45127165,-1.966873,0.53472435,-0.17961992,-0.36503854,-0.88603747,-0.08637551,-0.27249804,-0.20068532,1.7122654,0.031851184,-0.4810696,-0.10737853,-0.52298707,0.13488746,-0.46898654,1.9157771,-0.8822328,0.2181494,0.21268031,-0.23778968,-1.2588427,-0.011384876,0.18406418,-0.6619132,0.75639594,-0.19229324,1.1539371,-0.7394305,-0.31217548,0.44945818,0.4724522,0.2670118,-2.2132583,0.19135736,-0.077342995,-0.5061593,-1.6136634,0.07507302,-0.070442095,-0.43513417,2.0170016,-1.1591705,-0.034452666,0.7401138,-0.1691644,0.27926764,-0.06717829,0.9149166,-1.3519738,-0.3760088,0.4486918,-0.09353077,-0.09158464,0.104906455,-0.5357121,-0.29066035,-0.24564002,0.35490605,1.0210195,0.11828976,0.9612197,-0.80614036,0.7920625,0.09456838,-0.9171672,0.43749693,-1.4728847,-0.37083188,0.25317174,0.10786404,0.10538759,0.73161346,0.4679054,0.15918882,-0.43240997,0.17659277,0.90247214,-0.68875116,0.20760997,-0.9390012,1.7137015,-0.29296124,0.053944115,0.39488074,1.4173867,0.026050387,0.1664267,0.88138145,-1.3935723,0.03176103,0.751025,-0.28369775,-0.008008303,0.41338122,0.18237744,-0.5574161,-0.6709028,-0.052613173,0.058251545,-0.17508331,-0.41073713,0.015614728,-0.09404339,-0.024350427,0.1970518,-0.25680646,0.4263438,-0.0810813,-0.74979675,0.61661065,-0.06834416,0.5541359,-1.9888152,0.38501406,0.22884521,-0.36940616,-0.950877,-0.059445933,0.0075005596,-0.7259619,1.6152776,-0.41812104,0.18726014,0.589452,-0.91571736,0.763271,-0.1956051,0.121881165,-0.7995865,-0.11166993,0.83892506,-0.19118442,-0.7697507,0.1637262,-0.91730016,-0.8611286,0.18337928,-1.3912617,-0.27268165,0.50779396,-0.08196752,0.077545285,-0.16242224,1.0199609,-0.9447172,-0.03753157,0.4109856,-0.04889346,0.18450041,0.018490644,-0.20378245,-0.1778685,-0.113280974,0.35571244,0.20502993,-0.2618821,0.5447462,-0.6425531,0.22947028,0.4922636,-0.7860348,0.46065527,-1.0950537,-0.31359476,0.13333519,0.029723955,0.478163,0.52203053,0.6975653,-0.10538261,1.0865196,-0.23410687,-0.23426175,0.5546198,0.34673068,-0.12815084,-1.8257198,0.59283817,-0.048991002,-0.39591372,-1.1767845,-0.11525186,-0.19509897,-0.41967818,1.6988797,0.06651983,0.6373419,-1.5697877,0.24521463,0.26217353,0.37699932,-0.45876604,-0.6264899,-0.48223332,0.03319323,-0.16049635,-0.6580867,0.03484619,0.5016415,0.11417452,0.37943113,-0.16572143,-0.15234305,0.42187902,-0.4889179,0.12597544,-0.25277036,1.3970022,-1.0947226,0.55330867,0.0032802182,-0.274693,-1.1061814,0.092176795,-0.12383305,-0.56712025,1.1986295,-0.66134393,-0.6047004,0.29131526,-1.1605725,1.0072412,-0.69552207,-0.2556727,0.2740863,-0.36515462,1.8452089,0.4908741,-0.20642969,-0.10661045,-0.5599002,-1.015224,-0.35187894};
static float queryweight[] = {-0.9348113,0.16644987,-0.64722246,-0.31291127,0.37990165,-0.11019661,-0.31278467,0.6119161,-0.36863738,0.661559,0.26184335,0.48279962,-0.03814276,0.29903638,-0.32036486,-0.698011,0.8108726,0.922044,-1.5984018,0.020044193,-0.012592617,0.3417043,-0.84273034,-0.99592894,-0.3754383,0.10432319,-0.2861171,-0.17037743,-0.044861216,-1.3638378,-0.024996275,0.54277736,-1.196338,0.659952,-1.0681624,-0.04376382,0.30416933,0.18642974,0.24477217,0.56576633,-1.1014329,0.62119204,0.2642258,0.4428555,0.13183214,-0.54247415,-0.11702254,-0.83346546,0.29086843,0.94340134,-1.7314732,-0.2434894,0.05466524,0.37828076,-0.44086626,-0.5816886,-0.8382294,0.6545976,0.030293344,0.22598757,-0.07212945,-1.3418282,-0.29510158,-0.052717924,0.11085533,0.2802258,-0.36276272,0.1632245,-0.54358816,-0.11827676,0.34015763,0.4290172,0.0048146932,-0.26878837,0.51415193,1.1456225,-0.08281864,-0.82822865,0.31251657,-0.02333524,-0.5059955,0.67322206,-0.2921199,0.16231106,-0.4827799,0.27422708,-1.4666201,-0.14433536,0.27584192,0.1880977,-0.223796,-0.33382002,0.048991602,-0.3160795,0.29842645,-0.016498307,0.20494144,-0.87006915,1.7085228,0.037190653,-0.18044925,-0.105146095,-0.10696057,-0.1512224,1.0736246,-0.24692604,0.025686655,-0.38061297,-0.07248089,0.92080486,0.13993381,0.43685803,0.7411648,0.097145975,-0.053938225,-0.23772427,-0.2286809,-0.1301906,-0.23109205,-0.68004054,0.32697088,-0.06617324,-0.02321435,-0.059296455,0.047955297,-0.66399807,-0.20511551,0.8621941,0.11710903,0.7732556,-1.0734198,-0.2577106,0.035298865,-0.12013178,-0.10326935,-0.13769183,-0.53329706,0.2195901,0.09440612,0.9581436,-0.086832054,-1.0827068,-0.31594187,-0.28088924,0.6563083,0.17154913,-0.6016474,-0.0942538,0.020829028,0.15809844,1.0916481,-0.30774978,-0.35885078,-0.3786146,0.013065709,0.1477545,0.1760975,-0.85243875,-0.043500293,0.16870956,-0.031344455,0.25003576,-0.2518058,0.14770384,-0.3576831,-0.008951667,0.30026746,0.38647372,-0.29098925,-0.3292892,0.56483424,1.3029249,-0.07357346,-0.7366596,0.22703052,-0.16919087,-0.84318495,0.5077862,-0.4714837,0.14571434,-0.20296843,0.04586763,-0.80172366,0.24448699,-0.038870193,0.37333623,-0.04859267,0.024741933,-0.040211223,0.039097324,0.22710454,-0.31718898,0.53793925,0.874943,-1.3339001,-0.022658156,0.00048394912,0.16996074,-0.42642042,-0.6533928,-0.45175186,0.21445814,-0.22071998,0.30737755,-0.043829963,-1.2163577,-0.1960744,0.14322038,0.312775,-0.14271608,-0.761888,-0.9102768,0.7525647,-0.39569432,-0.7924163,-0.88608414,-0.30520603,1.1215512,0.16382982,0.21681273,0.08263288,-0.44640553,-1.037859,0.37996146,-0.62529504,0.8472988,-1.1502436,0.045667548,-0.10052678,0.33628398,0.11337904,0.15542448,-0.8555253,0.4428399,-0.007451405,0.6064665,0.08094398,-0.7297341,-0.05343308,-0.6770295,0.82978225,-0.46908286,0.2240654,-0.25672978,0.37506008,-0.13295811,1.404349,-0.3087885,-0.20826113,-0.30152294,0.10760988,0.21468493,0.053622294,-0.12091086,-0.28664124,0.21440578};
static float valueweight[] = {-0.028332394,-0.089462355,-0.026948849,-0.02630446,0.07711858,-0.07034548,0.039718952,0.07428047,-0.046301626,-0.007297135,0.0016652263,-0.20745511,0.021224065,0.049660698,-0.053993657,-0.08616459,0.25346494,0.19292052,0.43861684,-0.021625979,-0.0118721,-0.03960825,0.49955344,-0.18001518,0.25508907,-0.51372945,0.21424289,-0.040747903,0.0018202993,0.43833506,0.035601087,0.5829872,0.097466685,-0.11400928,0.24612166,0.072286576,0.107035585,0.14861844,0.20577724,0.07009683,-0.18898831,0.08168737,-0.041948806,-0.28063747,0.019268675,-0.007860866,0.11960024,0.26436633,-0.18778244,0.42716128,0.18390372,0.069051184,-0.22576411,-0.04266005,0.10784064,-0.38639924,0.24245319,-0.03538806,0.2121261,0.39569914,-0.0322489,0.25265414,0.07605741,0.33385837,-0.034813963,-0.08647006,0.024036953,-0.090809986,0.015716141,-0.17915188,-0.052138224,-0.08648136,0.07073963,-0.010579076,0.022349983,0.076421395,-0.008729279,-0.23717955,-0.097447224,-0.15561374,-0.0002889533,0.049477134,-0.03264242,-0.013738822,0.0218061,0.012216305,-0.04524287,-0.10655043,0.028343614,0.098529965,-0.04299385,0.18029328,0.0035150119,0.09953794,0.097052194,0.13149062,0.021365104,-0.104198426,0.071588054,-0.12999964,0.005102881,-0.19872159,0.024804909,-0.086971045,0.0089938445,0.20873721,-0.015340069,-0.19036165,-0.0103078075,-0.13260357,-0.1563217,-0.06800372,0.72782063,-0.21796624,0.54268026,0.091707,0.18576194,-0.026510635,0.10005276,0.18774793,0.24270228,-0.32936066,0.0570691,-0.11060412,-0.07828854,0.1980141,0.12064475,0.5709545,0.02499438,0.07980426,0.07967017,0.07237601,-0.107924104,-0.007943656,-0.074478745,-0.17790917,0.08528999,0.13154332,-0.018911412,0.29208818,-0.033734854,0.049655594,0.10953095,0.10670764,0.075790256,0.09999743,-0.007271492,0.0909358,-0.14085302,-0.049678657,-0.07346216,-0.10703119,0.0875088,-0.0057707466,0.06782694,0.09534964,0.089856714,-0.16411881,0.049535237,-0.080139145,0.020782735,0.07624182,-0.027650781,0.0027488007,-0.11660227,0.060077023,-0.0061857733,0.019989304,-0.029495565,-0.073620684,0.18442841,-0.008360036,-0.05879692,0.04041417,0.0948018,0.051718086,0.54238904,0.091431916,0.42352244,0.04265065,-0.013334065,-0.1290626,0.587017,-0.12791814,0.25494415,-0.588683,0.11566263,-0.0912881,0.022125011,0.39288133,0.04267151,0.56893,-0.030139672,-0.08324125,0.043111987,-0.12747985,-0.021168042,-0.10718197,0.030141966,-0.11359627,0.041570023,0.09974349,-0.116554186,-0.03437088,-0.17377111,-0.012945081,-0.1904119,0.020732736,-0.05432652,-0.07474273,-0.05824196,0.053961195,0.05552649,0.23929302,-0.018657697,0.07792138,0.034585904,-0.21136117,0.035834547,-0.15258543,-0.019206973,-0.031412423,-0.052084036,-0.17096175,0.07424166,-0.10191555,-0.040593196,-0.042466518,-0.09107327,-0.08463585,0.010938714,-0.11914309,-0.069346175,0.11177614,0.17744978,-0.09383229,0.0090648895,0.051950343,-0.049086064,-0.060677838,-3.5357472e-05,-0.033262562,-0.0760741,-0.07601866,-0.014122852,-0.02926326,0.019386167,0.038053904,0.03731255,-0.12332903,-0.057513848,-0.03289266,-0.060683556,-0.045452647,0.044058762,-0.14528845};
static float projweight[] = {-0.005422049,-0.23449498,0.033190962,-0.18265367,-0.052035514,0.13182987,-0.06286868,0.026137786,0.08906269,-0.020942265,0.03782421,-0.266999,-0.0056259176,-0.123593755,-0.062281292,-0.054193072,0.08668817,0.1439953,0.2614864,0.18013428,-0.105442695,-0.0630872,0.0072799637,-0.5627117,-0.08065831,-0.06489833,0.015889259,-0.012931225,0.0075216843,0.038506497,-0.006707264,0.00899602,0.092815,0.025829252,0.20555146,0.07358504,-0.008327836,-0.16786712,0.08207788,-0.28192523,-0.25781184,0.029096827,0.0075042564,-0.07065307,0.19234122,0.027984278,0.15814273,0.10668874,0.08514552,-0.053427964,-0.17021725,-0.014534717,-0.019042673,-0.1473141,-0.119025014,0.054115895,-0.124425165,0.07787115,0.092500694,-0.079781204,-0.12162067,0.26202124,0.040132545,0.17345409,0.0045777634,-0.101409785,-0.013784404,-0.16467066,-0.011676651,0.0076100226,0.07339194,-0.15343927,-0.047878355,0.038771577,-0.0060257153,-0.22772264,-0.09277718,-0.05327193,0.02258092,-0.09268672,-0.013554688,0.10101413,0.15242779,0.18020196,0.14008717,0.002975439,0.14319052,-0.26777673,0.13424727,0.10906438,0.0016322662,-0.057251222,0.052620046,0.0068263006,0.004006158,0.061504062,-0.16069667,-0.41768038,-0.09389106,-0.21710095,0.012642833,0.15109658,-0.027870301,0.43026027,0.21960908,0.09426644,0.017320834,-0.28458637,0.040217094,-0.0492608,-0.15463778,-0.21432431,-0.003921115,0.36395177,-0.15012889,0.6940169,0.103128694,-0.011904216,0.09442175,-0.51515377,0.1521456,0.1279834,-0.05374897,0.0007706623,0.013560962,-0.022455132,-0.030546768,0.007315297,-0.028747704,-0.048568774,-0.076020174,0.07310991,-0.04191409,0.025486955,-0.084151536,-0.3260944,0.25911012,0.10090195,0.087462746,-0.14129344,0.07466741,-0.07458875,-0.054553054,-0.052005567,0.06628072,0.15841915,-0.013907993,0.014381702,0.008652163,0.02346893,0.07777976,0.1864245,-0.009442833,-0.056490753,-0.05104451,0.29842177,-0.0060131457,-0.066705264,-0.0021216192,-0.05310426,-0.07420097,-0.3355764,0.09432148,-0.24765973,-0.11306026,0.26098087,-0.19077337,0.39223808,0.17212294,0.12135501,0.13300255,-0.2672111,-0.06664434,-0.026716474,-0.12936212,-0.1274213,0.061924003,-0.011730984,0.0010722387,0.15172851,-0.118912615,0.034688167,-0.061192386,0.038763262,-0.10373748,-0.08782552,0.052456126,-0.0781341,-0.06881723,-0.0178939,0.14016023,0.053063113,0.04054703,0.075230554,0.06730604,0.22698134,0.16647357,-0.052792247,0.13792531,-0.27877438,0.0045272214,0.02991338,-0.032824516,-0.028732441,0.10323389,-0.08363138,0.05854507,0.10061597,-0.059604608,-0.030618075,-0.071437545,0.14783522,-0.100455455,0.10940241,-0.102768905,-0.08301036,0.039975084,0.086536825,0.092455804,-0.10438657,-0.108906925,-0.0886593,-0.06331019,-0.064612255,-0.03374589,-0.010846099,-0.061224077,-0.030555831,0.01854006,-0.11265714,-0.044264536,0.13017622,0.020299483,0.15825874,0.06976937,-0.09388089,-0.17758945,0.12191937,-0.17688008,0.014156182,0.06735872,-0.055527516,0.08384926,0.10013408,0.026613275,-0.037392993,0.17221826,0.03524871,0.029985828,-0.01906592,-0.060393,-0.17482324,0.014009443,-0.109042734,0.022185976,-0.047583733};
static float projbias[] = {-0.09146428,-0.26518297,0.042098965,0.054556645,0.06672188,0.10538889,0.28030413,-0.19749759,-0.031940978,0.017057475,0.1481889,0.05230269,0.047071844,0.021275705,0.19585896,0.16432354};
static float ffwd0weight[] = {-0.016389852,0.07627649,-0.034479745,-0.0649939,0.061220206,-0.0128200725,-0.0014954244,0.038546864,0.07164662,-0.030112552,0.017351998,-0.03032669,0.050455384,-0.008999875,-0.09044225,-0.090493426,0.06594114,-0.010158242,-0.022227857,0.034347136,-0.036248676,0.06586059,0.014019488,0.017208908,0.025894422,-0.0030686047,0.00093086256,0.106917135,-0.042564098,0.015217918,-0.047069065,0.049141623,0.024159865,0.07067388,0.037235823,-0.03839624,-0.013466276,-0.231709,-0.010882691,0.053454645,-0.0077686515,-0.029134084,-0.011021429,0.010686208,-0.10404492,0.1678351,-0.17581838,0.12931456,0.8549561,0.3349807,-0.5213461,0.37833315,0.201836,-0.12531926,-0.020465178,0.67257756,0.15871881,-0.6592217,-0.44861358,0.45192048,-0.19142154,0.58611107,0.23857068,-0.17209007,0.025736393,0.18996936,0.06761195,-0.064670265,-0.28670657,-0.009691058,-0.055299778,0.32925344,-0.1377424,0.013044686,-0.0071088844,0.17756662,-0.013447281,0.2202293,-0.034718014,0.09885632,0.1674512,0.10624448,0.026495717,-0.03595127,0.19243987,-0.029776743,-0.117381,-0.004490636,-0.021053342,-0.035627693,-0.09101045,0.04206145,-0.08854905,-0.011924056,-0.2821763,0.008225921,0.03800441,0.009083942,0.06301598,0.03785251,-0.00010305885,-0.059600066,0.0652076,0.012527529,0.050893098,0.008530593,0.025569975,-0.07432747,0.08818852,-0.039001867,-0.046586648,0.033536628,0.010027871,0.10276471,0.26846665,0.14140081,-0.1744868,0.07494082,-0.0740061,-0.004055372,-0.03920184,-0.08532481,0.024564475,-0.047158968,0.1197545,0.06441564,-0.16346298,-0.10683116,0.31246224,0.21508928,-0.023236338,-0.10686659,-0.08322503,-0.012505122,-0.11365861,0.119165204,0.0145078655,0.018551644,0.065815195,-0.11865457,0.028613793,-0.034417223,-0.3867108,0.0018848847,-0.04626124,0.09559123,0.0077854716,-0.017033385,-0.082243845,-0.09812613,-0.065311275,0.061191756,-0.011159645,0.0909429,0.07446398,0.13730198,0.004753434,0.09869716,0.010581336,-0.11207709,-0.24053198,-0.0027164773,0.02967941,0.15329377,-0.37354267,-0.0094032055,0.010002813,0.53868645,-0.0666284,-0.29717904,-0.020156832,0.229211,0.07388033,0.26095968,-0.11003568,0.18494554,-0.22241561,-0.24540436,-0.19382003,0.28195196,-0.17468305,-0.03905262,0.007048005,0.08525172,-0.3229999,-0.9306808,0.16580728,0.5146437,-0.10178255,0.5376203,-0.70540833,0.41642103,0.07065367,-0.03956302,-0.045756787,-0.010560655,0.012490187,-0.07873818,-0.05908053,0.022744453,0.061691955,0.041497383,0.005004175,0.021847408,0.020883417,0.021323176,0.0098573,-0.005717049,0.013582344,0.061768286,0.018470189,-0.007731855,-0.0052202204,-0.10664043,-0.08251931,-0.024389941,-0.047456883,-0.0003284952,-0.01901465,-0.09971857,0.09131799,0.15718575,-0.014227166,-0.10026515,-0.013483425,0.021100707,-0.013574453,0.047873747,0.002420342,-0.0353338,0.019117063,0.030162448,0.016830413,-0.036683064,-0.04868132,0.032174777,0.034393337,-0.01125265,-0.044603102,-0.08380647,-0.037570585,0.018666334,0.11456081,0.061781954,-0.15360227,0.092627555,-0.04463408,0.013739456,0.016694164,-0.08935015,-0.009780261,-0.10397748,0.015074951,0.048852853,-0.26543468,-0.064562954,0.20438437,0.37055054,0.060723722,0.2853261,0.010472858,0.057810526,0.19113226,0.3456446,-0.6577392,-0.14767289,-0.21900234,-0.20997854,0.17568384,-0.40977505,-0.2002389,-0.15268122,0.013589667,0.07606778,0.08542126,0.0022623248,0.006948566,0.04862735,0.0021157358,0.032523878,0.030317562,0.0017025091,0.042758957,0.06308876,0.008848744,0.023357987,-0.052908055,-0.043866042,-0.050568167,-0.068259776,-0.017822947,0.22473393,-0.008556968,-0.025243787,0.074637555,-0.020643966,-0.04468549,0.03399484,0.107176654,0.030391265,0.016629755,0.03909654,-0.17537877,0.02086175,0.03797149,0.28218153,-0.011156577,-0.07539085,-0.030328771,0.04539245,-0.058830056,-0.02615355,0.19333372,-0.16558604,0.03877202,-0.11818258,0.012988255,0.25672218,0.04879712,-0.025839759,0.019302027,0.039922092,0.07619502,-0.019241085,-0.04155633,-0.08340394,-0.023519935,-0.00689291,0.09296687,0.05553262,0.008173786,0.07316052,-0.016711103,0.028227195,-0.0020688842,-0.029076675,-0.009798341,0.05379135,0.034609314,0.06559529,-0.09247597,0.116556264,0.12843008,0.05758691,0.1110485,-0.18234128,-0.059147913,-0.3713904,0.2866609,0.1011775,-0.33080363,0.0018679274,0.17993528,0.100164525,-0.03572125,-0.021282239,-0.032657553,-0.08989736,0.01999906,0.018322805,0.06109301,-0.06589628,-0.05911327,-0.005851026,0.09411747,0.11985056,-0.21259218,-0.08220737,0.22302572,0.42617282,-0.014785828,0.7964216,-0.6156731,-0.0706888,0.0015347466,-0.09633097,-0.10907293,-0.18695197,0.18576662,0.25916123,-0.07466535,0.41967475,-0.35607475,-0.18792419,-0.044845268,0.10496636,0.016961847,-0.2298841,0.12596786,0.019121788,-0.049079638,0.094596095,0.24030446,-0.08676873,-0.15109195,0.09345911,-0.062410854,0.27404362,0.26962882,0.27596366,0.2942697,0.08621165,-0.2660275,-0.10594878,-0.21724616,0.024649933,-0.11928744,0.050732143,0.09291015,-0.032211788,0.117587805,-0.08542571,0.18014172,-0.1011656,-0.36999768,-0.1578739,0.22278787,0.5011855,0.073520124,0.65798146,-0.3170328,-0.02038769,-0.078373596,0.49550048,-0.3482136,-0.29233086,-0.055015847,0.13643174,0.04185234,-0.21568775,-0.3082422,-0.107121386,-0.15830351,0.009732919,-0.13356115,-0.03949358,0.08287797,-0.009750715,-0.020611335,0.02020763,0.22252283,-0.14214757,0.049067475,0.16633376,0.008029102,0.2862177,-0.11448609,0.13665402,-0.119947456,0.81885624,0.030128144,0.49753186,-0.51521355,0.010263363,-0.096443236,0.024023488,-0.47907254,-0.24040495,-0.27876163,0.03441741,-0.010523262,0.06825655,-0.19393663,-0.20545007,0.25663674,0.69034636,-0.03218292,0.53985393,-0.25013494,0.072437875,0.14789365,-0.12045091,-0.20742153,-0.1993129,-0.20931189,0.50328165,0.102922596,-0.14598891,-0.35124883,-0.26320064,0.07727392,0.033847373,0.09378547,-0.05376534,0.12743343,-0.08132404,-0.009720591,0.021955173,-0.055895433,-0.024932802,-0.0805909,0.124651454,-0.03838931,0.06329881,-0.10418203,-0.07208079,-0.045007546,0.0044343392,0.071330704,0.03344129,-0.060919005,-0.06448379,-0.08658513,0.014785318,0.050194554,0.042552836,0.013727665,0.07912761,-0.025490375,0.051332563,-0.018041508,0.032965176};
static float ffwd0bias[] = {-0.16885895,-0.14420938,-0.25098318,-0.3679211,-0.1558929,-0.14326942,-0.10338074,-0.15721339,-0.19100645,-0.063486606,0.20447007,-0.052361764,-0.1662287,-0.19144635,-0.19005042,-0.11353254,-0.17024668,-0.11518755,-0.051506247,-0.063792616,-0.1581101,-0.15071449,-0.22234967,-0.5563647,-0.115216106,-0.30143732,-0.2685902,-0.09790532,-0.17856728,-0.32034022,-0.07352829,-0.20297012};
static float ffwd2weight[] = {0.048333574,0.011672971,-0.08793465,0.08643427,0.22859871,0.01556521,0.003895429,0.041032195,-0.038223285,0.116401665,0.4170494,-0.6381167,0.014930536,0.06984313,-0.03393329,-0.22333322,0.41361347,-0.057449173,0.12160519,-0.11262457,-0.03715715,-0.27212593,0.0065623764,-0.07822294,0.028857898,-0.004469586,-0.024412096,0.079013154,0.3521392,0.18849039,0.021795947,0.046976883,0.048353054,-0.01835957,0.029277073,0.9556532,0.008003336,-0.15991907,0.035910882,0.1340728,0.10652154,0.098084085,-0.2788295,-0.0036157104,-0.039845757,-0.07902138,0.03765967,-0.026305793,0.31407303,-0.077886656,0.0018743979,-0.004112798,0.018786753,0.086304456,-0.06257378,-0.29478917,-0.07066785,0.20784827,-0.15333508,-0.13404769,-0.26300856,-0.84744376,0.03923899,0.066439204,-0.0050460636,-0.04199536,-0.20878577,0.5181324,0.14580405,0.00020075704,0.010342536,0.15326628,0.091425546,0.11629415,-0.0044677807,-0.36118892,-0.024576431,-0.018927284,-0.04589606,0.11093652,-0.039345663,0.0026537832,0.100986734,0.054325458,-0.0135221705,0.03271613,-0.018190993,-0.18663357,-0.01809191,0.28502324,-0.42214793,-0.3112085,-0.47338375,0.043989845,0.047395132,-0.00023798303,0.0059994636,0.0462105,0.17399096,0.22460401,0.022245226,0.043611888,-0.017996173,0.22789098,0.05250476,-0.044003896,-0.19914101,0.12750588,0.036974464,0.014304281,0.07058366,-0.02278232,0.40734142,0.071147226,-0.0134813385,0.1502688,-0.018585907,-0.13439602,0.026836375,-0.19339466,-0.14820378,-0.20558491,-0.19315441,-0.017586954,-0.44459194,-0.023775293,0.044379495,-0.03221916,-0.003947759,-0.027414413,0.02261644,0.14958337,0.028005974,-0.029398067,-0.035692118,0.10045652,0.023323419,0.08379545,0.276119,-0.56280077,0.06400398,0.070934854,0.017108712,-0.13547403,0.21907069,0.08772253,0.05018,-0.08141049,0.09935929,-0.106071584,0.11011444,0.16386093,0.039003994,-0.1089574,0.35162312,0.04819131,0.8121723,0.3063736,-0.037762254,0.08898405,-0.055185065,0.06009951,0.2216805,0.35046783,-0.009055724,-0.02178559,0.005855177,-0.035402752,0.03216841,-0.020494228,-0.40083072,-0.111020856,-0.03191925,0.010529169,-0.090915516,0.041960344,0.07076787,-0.00020713147,0.086690225,0.0022859585,0.0051079867,-0.016535407,-0.0836667,-0.1758134,0.2261426,0.169381,-0.14126578,0.09794675,-0.6720115,-0.14575592,0.056636095,-0.053941276,0.0016301131,0.055474598,0.16807413,-1.1890302,0.23747672,0.02513913,0.04921894,-0.09055465,-0.057543475,0.09107352,0.39820018,0.96049887,-0.017957075,0.07134948,0.097210824,-0.054438148,-0.02523584,0.06540763,0.14786594,-0.19382147,0.030185923,-0.308574,-0.12414854,-0.5034454,-0.16770253,-0.17101206,-0.21555746,0.09500789,-0.206897,-0.2334477,-0.029857147,0.011554863,0.014970864,-0.085784346,-0.45086384,1.0848286,-0.01893838,-0.042075068,-0.063743696,0.13561699,-0.2789833,-0.071052216,-1.2417458,-0.2024158,-0.029672045,-0.017898241,-0.06710044,0.022130376,-0.38505775,-0.05110537,-0.045251932,0.16847439,0.036850173,0.0761344,0.024223246,-0.097813904,0.17483577,-0.15379754,-0.062072374,0.101878375,0.5530739,0.0049064993,-0.09319834,0.012049034,0.023351071,0.0027306748,-0.046191234,0.38835317,-0.0028341615,-0.0044116927,0.06801594,-0.0045573656,0.06598794,-0.02255075,-0.17966147,-0.48094764,0.008772233,-0.06337454,0.016449867,0.0806244,0.34320164,0.053117257,0.04637613,-0.15027133,-0.025593292,0.018137343,0.07491436,-0.44506708,0.058868416,-0.04790756,0.18197246,-0.052230798,0.08840635,-0.21223655,-0.0043751886,0.058000557,-0.02567608,-0.011369713,-0.040688697,-0.36918232,0.12194304,0.047426496,-0.03310059,0.10273368,-0.09957485,0.03881521,0.10337311,-0.021375792,-0.012519605,-0.007851393,0.0057313107,-0.18018624,0.11822091,-0.05431656,0.11277368,-0.11047756,-0.011885741,-0.16442427,0.058772612,0.42564455,-0.12961021,-0.034132205,0.3286682,0.121194236,0.20122474,0.2689758,-0.0007698884,-0.0043176957,0.06060321,0.06928578,0.024194004,-1.0305028,0.1807393,0.15984583,0.03417794,-0.20894852,0.09997468,0.043585777,0.31917357,0.8789895,0.0030314736,0.070005275,0.04363099,-0.031886432,0.2490966,-0.0036124988,0.036659267,-0.17748,0.05784246,-0.18930641,0.03177231,-0.5097245,-0.15070114,-0.012663744,-0.07363143,0.00531825,-0.027916204,-0.06777283,0.10241581,-0.04830972,-0.027781203,-0.0077459184,0.20566617,0.32806256,-0.024499606,-0.01531698,0.045240942,-0.024601376,-0.08585467,-0.06488099,-0.12838507,-0.09589422,-0.008799126,-0.0024080488,0.037138246,0.22090831,-0.26712015,0.003767053,-0.12398978,0.10822432,-0.03454028,0.26147053,-0.053658392,-0.4125368,0.036936156,0.373945,-0.37057057,-0.20595708,0.15749645,-0.07752888,0.0170618,-0.052487332,-0.033336643,0.008209749,0.12198871,0.5482467,0.088849306,0.045438804,0.028655488,0.1916524,0.09256806,0.09670788,-0.41301736,-0.2254995,0.012307688,-0.12615688,-0.005786694,0.13380514,-0.07246039,0.0033192718,0.031800203,0.024786646,0.070183024,-0.031762466,0.0009559997,-0.08083411,0.35770282,0.4523476,-0.39313543,0.06754782,-0.6296726,-0.071296394,-0.0063712643,0.11971778,0.05244374,-0.021015437,0.041282833,0.24523534,-0.13793463,-0.0053867917,-0.04907589,-0.12876748,-0.111114375,-0.06937296,-0.15691777,-0.0963583,-0.0887444,0.022634318,-0.020712039,0.12544894,-0.14437115,0.002428876,-0.09180129,0.103900276,-0.062267058,0.2213477,0.004004087,-0.48699605,0.16049053,0.051649608,-0.356773,-0.08212158,0.0044786013,-0.15769665,-0.008906864,-0.109248415,0.013072609,0.08855539,0.009930158,-0.7355313,-0.17604248,-0.13631047,0.078110196,0.02628469,0.11670447,-0.08618284,-0.16671687,1.0839064,-0.016884357,-0.116394885,-0.068752676,-0.11917147,-0.21431895,-0.09446741,0.012089852,-0.057656284,-0.008995023,-0.21108614,-0.086999476,-0.31888565,-0.29795262,-0.17503935,-0.35140267,0.14834398,-0.4627599,-0.07592638,-0.029326562,0.082212605,-0.039760105,0.04243622,-0.0010369816,0.09865143,-0.20118646,-0.117730826,-0.005672919,-0.17404032,-0.29370055,-0.012935919,0.04235588,-0.018686708,0.03534392,-0.047631044,-0.0011939002,0.22053546,-0.25811592,0.124723375,-0.16122301,0.23528266,0.0728923,0.21500726,-0.047407992,-0.45057943,0.19360277,-0.43798506,-0.41053605,-0.122335635,0.29981372,0.0889928,-0.016643548,0.06698373};
static float ffwd2bias[] = {0.26292303,-0.31364402,-0.052135766,0.1490266,-0.053238317,-0.059759114,0.18207578,-0.0924275,-0.018116737,-0.12461364,0.32959107,0.036996037,-0.013765126,0.05059817,0.03713978,0.05124774};
static float ln1weight[] = {0.68394923,1.0254598,1.5091546,0.39532843,0.28885698,0.31178784,1.3818182,0.94686425,0.8348731,0.40925205,0.22708426,0.8545282,-0.0073291394,0.68641675,0.4429411,1.0664142};
static float ln1bias[] = {-0.2522037,0.16303912,-0.18508424,0.19903211,-0.3787948,0.118317425,-0.29593256,0.8660053,-0.19666524,-0.9612473,0.1762776,0.38985243,0.020400219,0.34629622,0.23843999,0.2856493};
static float ln2weight[] = {0.4786903,0.41239744,0.24336544,0.73341805,0.3009037,0.03682192,0.038553223,0.5967111,0.4715793,0.6115947,0.0992807,0.6719427,0.07314739,0.82951444,-0.6398749,0.39624998};
static float ln2bias[] = {0.09812042,0.0064914576,-0.018372968,-0.070644744,0.096015215,-0.042697787,0.0012082577,-0.21743768,-0.028121708,0.003469244,0.21018064,0.007222641,-0.033784058,-0.09563872,0.12259321,0.0114653455};
static float ln_fweight[] = {0.7373096,0.046079982,6.286687e-05,-8.903139e-05,0.8885321,0.00057907135,0.18535797,0.024405675,-4.0277345e-07,1.3723478,0.1092352,0.8231478,0.07803886,1.2380108,0.07994982,0.8635001};
static float ln_fbias[] = {0.0322,0.13692497,2.912829e-05,1.6100517e-05,0.055129483,-7.174042e-05,-0.09635375,0.02640648,5.100156e-06,0.13666165,-0.1281952,-0.09525365,-0.027665418,-0.10926735,0.0131429,-0.2652358};
static float weight[] = {-0.32257155,-0.062120263,-0.015991064,-0.0046262057,-0.4007928,0.019062791,-0.16671298,0.08307964,-0.0097,-0.9505762,0.046293646,0.500854,0.041423485,0.32888642,0.031149555,1.472231,0.32697105,-0.044249006,-0.015943537,-0.004615909,0.38026893,0.01908033,0.13918404,0.078466326,-0.009695612,0.9687959,0.022688085,-0.45569327,-0.03495521,-0.2772158,0.10278914,-1.5595162};
static float bias[] = {-0.0932967,-0.005397782};

#endif
