/* U-TOE Generated File */ 
#include <stddef.h>
#include <stdint.h>
#include "mlmci.h"
const size_t _2_bias_len = 2;
__attribute__ ((aligned(4)))
const float _2_bias[] ={-0.09329669922590256, -0.0053977821953594685, };
const size_t _2_weight_len = 32;
__attribute__ ((aligned(4)))
const float _2_weight[] ={-0.3225715458393097, -0.062120262533426285, -0.01599106378853321, -0.0046262056566774845, -0.40079280734062195, 0.019062791019678116, -0.16671298444271088, 0.08307964354753494, -0.009700000286102295, -0.9505761861801147, 0.04629364609718323, 0.5008540153503418, 0.041423484683036804, 0.3288864195346832, 0.03114955499768257, 1.4722310304641724, 0.32697105407714844, -0.04424900561571121, -0.015943536534905434, -0.004615908954292536, 0.380268931388855, 0.019080329686403275, 0.13918404281139374, 0.07846632599830627, -0.009695611894130707, 0.968795895576477, 0.022688085213303566, -0.4556932747364044, -0.034955210983753204, -0.2772158086299896, 0.10278914123773575, -1.559516191482544, };
const size_t _1_bias_len = 16;
__attribute__ ((aligned(4)))
const float _1_bias[] ={0.03220000118017197, 0.13692496716976166, 2.9128290407243185e-05, 1.6100517314043827e-05, 0.055129483342170715, -7.174041820690036e-05, -0.09635374695062637, 0.026406479999423027, 5.100156158732716e-06, 0.13666164875030518, -0.12819519639015198, -0.09525364637374878, -0.02766541764140129, -0.10926734656095505, 0.013142899610102177, -0.2652358114719391, };
const size_t _1_weight_len = 16;
__attribute__ ((aligned(4)))
const float _1_weight[] ={0.7373095750808716, 0.046079982072114944, 6.286687130341306e-05, -8.90313895069994e-05, 0.8885321021080017, 0.0005790713476017118, 0.1853579729795456, 0.024405675008893013, -4.0277345192407665e-07, 1.3723478317260742, 0.10923519730567932, 0.8231477737426758, 0.07803885638713837, 1.2380107641220093, 0.07994981855154037, 0.8635001182556152, };
const size_t _0_0_ffwd_2_bias_len = 16;
__attribute__ ((aligned(4)))
const float _0_0_ffwd_2_bias[] ={0.2629230320453644, -0.31364402174949646, -0.05213576555252075, 0.14902660250663757, -0.053238317370414734, -0.05975911393761635, 0.18207578361034393, -0.09242749959230423, -0.01811673678457737, -0.12461364269256592, 0.3295910656452179, 0.036996036767959595, -0.013765125535428524, 0.05059817060828209, 0.037139780819416046, 0.051247738301754, };
const size_t _0_0_ffwd_2_weight_len = 512;
__attribute__ ((aligned(4)))
const float _0_0_ffwd_2_weight[] ={0.04833357408642769, 0.011672970838844776, -0.08793465048074722, 0.0864342674612999, 0.2285987138748169, 0.015565210022032261, 0.0038954289630055428, 0.04103219509124756, -0.03822328522801399, 0.11640166491270065, 0.4170494079589844, -0.638116717338562, 0.014930536039173603, 0.06984312832355499, -0.03393328934907913, -0.2233332246541977, 0.4136134684085846, -0.05744917318224907, 0.12160518765449524, -0.11262457072734833, -0.037157151848077774, -0.2721259295940399, 0.006562376394867897, -0.07822293788194656, 0.028857897967100143, -0.004469586070626974, -0.024412095546722412, 0.0790131539106369, 0.3521392047405243, 0.1884903907775879, 0.02179594710469246, 0.046976882964372635, 0.048353053629398346, -0.01835956983268261, 0.029277073219418526, 0.955653190612793, 0.008003336377441883, -0.15991906821727753, 0.03591088205575943, 0.13407279551029205, 0.10652153939008713, 0.09808408468961716, -0.2788294851779938, -0.0036157104186713696, -0.03984575718641281, -0.0790213793516159, 0.037659671157598495, -0.0263057928532362, 0.31407302618026733, -0.0778866559267044, 0.0018743978580459952, -0.004112797789275646, 0.018786752596497536, 0.08630445599555969, -0.06257378309965134, -0.2947891652584076, -0.07066784799098969, 0.20784826576709747, -0.1533350795507431, -0.13404768705368042, -0.26300856471061707, -0.8474437594413757, 0.03923898935317993, 0.0664392039179802, -0.00504606356844306, -0.04199536144733429, -0.2087857723236084, 0.5181323885917664, 0.1458040475845337, 0.0002007570437854156, 0.010342535562813282, 0.1532662808895111, 0.09142554551362991, 0.11629415303468704, -0.004467780701816082, -0.3611889183521271, -0.024576431140303612, -0.018927283585071564, -0.04589606076478958, 0.11093652248382568, -0.03934566304087639, 0.0026537831872701645, 0.10098673403263092, 0.05432545766234398, -0.01352217048406601, 0.03271612897515297, -0.01819099299609661, -0.18663357198238373, -0.01809190958738327, 0.2850232422351837, -0.4221479296684265, -0.31120848655700684, -0.47338375449180603, 0.043989844620227814, 0.04739513248205185, -0.00023798302572686225, 0.005999463610351086, 0.046210501343011856, 0.17399096488952637, 0.22460401058197021, 0.022245226427912712, 0.04361188784241676, -0.017996173352003098, 0.2278909832239151, 0.0525047592818737, -0.04400389641523361, -0.1991410106420517, 0.12750588357448578, 0.0369744636118412, 0.01430428121238947, 0.07058365643024445, -0.02278232015669346, 0.4073414206504822, 0.07114722579717636, -0.013481338508427143, 0.1502687931060791, -0.01858590729534626, -0.1343960165977478, 0.026836374774575233, -0.19339466094970703, -0.1482037752866745, -0.20558491349220276, -0.19315440952777863, -0.017586953938007355, -0.4445919394493103, -0.023775292560458183, 0.044379495084285736, -0.032219160348176956, -0.003947759047150612, -0.027414413169026375, 0.022616440430283546, 0.1495833694934845, 0.028005974367260933, -0.02939806692302227, -0.03569211810827255, 0.10045652091503143, 0.02332341857254505, 0.0837954506278038, 0.2761189937591553, -0.5628007650375366, 0.06400398164987564, 0.07093485444784164, 0.01710871234536171, -0.13547402620315552, 0.2190706878900528, 0.0877225324511528, 0.05017999932169914, -0.0814104899764061, 0.09935928881168365, -0.1060715839266777, 0.1101144403219223, 0.16386093199253082, 0.039003994315862656, -0.10895740240812302, 0.3516231179237366, 0.04819130897521973, 0.8121722936630249, 0.30637359619140625, -0.03776225447654724, 0.08898404985666275, -0.05518506467342377, 0.06009950861334801, 0.22168050706386566, 0.35046783089637756, -0.009055724367499352, -0.021785590797662735, 0.005855177063494921, -0.035402752459049225, 0.03216841071844101, -0.02049422822892666, -0.4008307158946991, -0.11102085560560226, -0.03191924840211868, 0.010529168881475925, -0.09091551601886749, 0.04196034371852875, 0.07076787203550339, -0.000207131466595456, 0.08669022470712662, 0.0022859585005789995, 0.005107986740767956, -0.016535406932234764, -0.08366669714450836, -0.17581340670585632, 0.22614260017871857, 0.16938099265098572, -0.14126577973365784, 0.09794674813747406, -0.6720114946365356, -0.14575591683387756, 0.05663609504699707, -0.0539412759244442, 0.0016301131108775735, 0.055474597960710526, 0.1680741310119629, -1.1890301704406738, 0.23747672140598297, 0.025139130651950836, 0.04921894147992134, -0.09055464714765549, -0.057543475180864334, 0.09107352048158646, 0.3982001841068268, 0.9604988694190979, -0.01795707456767559, 0.07134947925806046, 0.0972108244895935, -0.05443814769387245, -0.025235839188098907, 0.06540762633085251, 0.14786593616008759, -0.1938214749097824, 0.030185922980308533, -0.30857399106025696, -0.12414854019880295, -0.5034453868865967, -0.16770252585411072, -0.1710120588541031, -0.21555745601654053, 0.09500788897275925, -0.20689700543880463, -0.23344770073890686, -0.029857147485017776, 0.011554863303899765, 0.014970864169299603, -0.08578434586524963, -0.4508638381958008, 1.0848286151885986, -0.018938379362225533, -0.04207506775856018, -0.0637436956167221, 0.1356169879436493, -0.27898329496383667, -0.07105221599340439, -1.2417458295822144, -0.20241579413414001, -0.0296720452606678, -0.01789824105799198, -0.06710044294595718, 0.02213037572801113, -0.3850577473640442, -0.05110536888241768, -0.04525193199515343, 0.16847439110279083, 0.03685017302632332, 0.07613439857959747, 0.024223245680332184, -0.09781390428543091, 0.17483577132225037, -0.15379753708839417, -0.06207237392663956, 0.10187837481498718, 0.5530738830566406, 0.004906499292701483, -0.09319833666086197, 0.012049034237861633, 0.023351071402430534, 0.002730674808844924, -0.04619123414158821, 0.388353168964386, -0.0028341615106910467, -0.004411692731082439, 0.0680159404873848, -0.0045573655515909195, 0.06598793715238571, -0.02255075052380562, -0.17966146767139435, -0.4809476435184479, 0.008772232569754124, -0.06337454169988632, 0.01644986681640148, 0.08062440156936646, 0.3432016372680664, 0.05311725661158562, 0.04637613147497177, -0.15027132630348206, -0.025593291968107224, 0.018137343227863312, 0.0749143585562706, -0.44506707787513733, 0.0588684156537056, -0.04790756106376648, 0.1819724589586258, -0.052230797708034515, 0.08840634673833847, -0.21223655343055725, -0.004375188611447811, 0.058000557124614716, -0.025676079094409943, -0.01136971265077591, -0.04068869724869728, -0.3691823184490204, 0.12194304168224335, 0.0474264957010746, -0.033100590109825134, 0.10273367911577225, -0.09957484900951385, 0.0388152115046978, 0.10337311029434204, -0.02137579210102558, -0.012519605457782745, -0.007851392962038517, 0.005731310695409775, -0.18018624186515808, 0.11822091042995453, -0.05431656166911125, 0.11277367919683456, -0.11047755926847458, -0.011885740794241428, -0.16442427039146423, 0.05877261236310005, 0.42564454674720764, -0.12961021065711975, -0.034132204949855804, 0.3286682069301605, 0.12119423598051071, 0.20122474431991577, 0.26897579431533813, -0.0007698884001001716, -0.004317695740610361, 0.06060320883989334, 0.06928578019142151, 0.024194004014134407, -1.0305027961730957, 0.18073929846286774, 0.15984582901000977, 0.03417794033885002, -0.2089485228061676, 0.09997467696666718, 0.043585777282714844, 0.31917357444763184, 0.8789895176887512, 0.003031473606824875, 0.07000527530908585, 0.043630991131067276, -0.03188643231987953, 0.2490966022014618, -0.003612498752772808, 0.03665926679968834, -0.17747999727725983, 0.05784245952963829, -0.18930640816688538, 0.03177231177687645, -0.509724497795105, -0.1507011353969574, -0.012663744390010834, -0.07363142818212509, 0.0053182500414550304, -0.027916204184293747, -0.06777282804250717, 0.10241580754518509, -0.04830972105264664, -0.027781203389167786, -0.0077459183521568775, 0.2056661695241928, 0.3280625641345978, -0.02449960634112358, -0.015316979959607124, 0.045240942388772964, -0.024601375684142113, -0.085854671895504, -0.06488098949193954, -0.12838506698608398, -0.0958942174911499, -0.008799126371741295, -0.0024080488365143538, 0.03713824599981308, 0.22090831398963928, -0.2671201527118683, 0.003767052898183465, -0.1239897832274437, 0.10822431743144989, -0.03454028069972992, 0.2614705264568329, -0.053658392280340195, -0.4125367999076843, 0.03693615645170212, 0.3739449977874756, -0.370570570230484, -0.2059570848941803, 0.15749645233154297, -0.07752887904644012, 0.01706179976463318, -0.0524873323738575, -0.03333664312958717, 0.00820974912494421, 0.1219887062907219, 0.5482466816902161, 0.08884930610656738, 0.04543880373239517, 0.028655488044023514, 0.19165240228176117, 0.0925680622458458, 0.09670788049697876, -0.4130173623561859, -0.2254994958639145, 0.012307687662541866, -0.12615688145160675, -0.005786694120615721, 0.13380514085292816, -0.07246039062738419, 0.0033192718401551247, 0.031800203025341034, 0.02478664554655552, 0.07018302381038666, -0.031762465834617615, 0.000955999712459743, -0.08083411306142807, 0.3577028214931488, 0.45234760642051697, -0.3931354284286499, 0.06754782050848007, -0.6296725869178772, -0.07129639387130737, -0.006371264345943928, 0.11971777677536011, 0.0524437390267849, -0.021015437319874763, 0.041282832622528076, 0.24523533880710602, -0.1379346251487732, -0.005386791657656431, -0.0490758903324604, -0.1287674754858017, -0.11111437529325485, -0.06937295943498611, -0.1569177657365799, -0.0963582992553711, -0.0887444019317627, 0.022634318098425865, -0.02071203850209713, 0.12544894218444824, -0.1443711519241333, 0.0024288760032504797, -0.09180129319429398, 0.10390027612447739, -0.062267057597637177, 0.22134770452976227, 0.004004086833447218, -0.486996054649353, 0.16049052774906158, 0.051649607717990875, -0.3567729890346527, -0.0821215808391571, 0.004478601273149252, -0.1576966494321823, -0.008906863629817963, -0.10924841463565826, 0.013072608970105648, 0.08855538815259933, 0.009930158033967018, -0.7355312705039978, -0.17604248225688934, -0.13631047308444977, 0.07811019569635391, 0.02628468908369541, 0.11670447140932083, -0.0861828401684761, -0.16671687364578247, 1.0839064121246338, -0.01688435673713684, -0.11639488488435745, -0.06875267624855042, -0.11917147040367126, -0.21431894600391388, -0.0944674089550972, 0.01208985224366188, -0.05765628442168236, -0.008995022624731064, -0.21108613908290863, -0.08699947595596313, -0.3188856542110443, -0.2979526221752167, -0.1750393509864807, -0.3514026701450348, 0.1483439803123474, -0.46275991201400757, -0.07592637836933136, -0.029326561838388443, 0.08221260458230972, -0.039760105311870575, 0.04243621975183487, -0.0010369815863668919, 0.09865143150091171, -0.20118646323680878, -0.11773082613945007, -0.005672919098287821, -0.1740403175354004, -0.29370054602622986, -0.012935918755829334, 0.04235588014125824, -0.018686708062887192, 0.035343918949365616, -0.04763104394078255, -0.0011939002433791757, 0.22053545713424683, -0.2581159174442291, 0.12472337484359741, -0.16122300922870636, 0.23528265953063965, 0.07289230078458786, 0.2150072604417801, -0.04740799218416214, -0.450579434633255, 0.1936027705669403, -0.43798506259918213, -0.4105360507965088, -0.12233563512563705, 0.29981371760368347, 0.08899279683828354, -0.016643548384308815, 0.06698372960090637, };
const size_t _0_0_ffwd_0_bias_len = 32;
__attribute__ ((aligned(4)))
const float _0_0_ffwd_0_bias[] ={-0.16885894536972046, -0.1442093849182129, -0.25098317861557007, -0.3679211139678955, -0.15589289367198944, -0.14326941967010498, -0.10338073968887329, -0.15721338987350464, -0.19100645184516907, -0.06348660588264465, 0.20447006821632385, -0.05236176401376724, -0.16622869670391083, -0.19144634902477264, -0.1900504231452942, -0.11353254318237305, -0.1702466756105423, -0.11518754810094833, -0.051506247371435165, -0.06379261612892151, -0.1581100970506668, -0.15071448683738708, -0.22234967350959778, -0.5563647150993347, -0.11521610617637634, -0.3014373183250427, -0.26859021186828613, -0.09790532290935516, -0.17856727540493011, -0.32034021615982056, -0.07352828979492188, -0.20297011733055115, };
const size_t _0_0_ffwd_0_weight_len = 512;
__attribute__ ((aligned(4)))
const float _0_0_ffwd_0_weight[] ={-0.01638985238969326, 0.07627648860216141, -0.03447974473237991, -0.06499390304088593, 0.0612202063202858, -0.01282007247209549, -0.0014954244252294302, 0.038546863943338394, 0.07164662331342697, -0.030112551525235176, 0.017351998016238213, -0.030326690524816513, 0.05045538395643234, -0.00899987481534481, -0.0904422476887703, -0.09049342572689056, 0.06594114005565643, -0.010158241726458073, -0.022227857261896133, 0.034347135573625565, -0.03624867647886276, 0.06586059182882309, 0.014019488357007504, 0.01720890775322914, 0.025894422084093094, -0.003068604739382863, 0.0009308625594712794, 0.1069171354174614, -0.04256409779191017, 0.015217917971313, -0.047069065272808075, 0.049141623079776764, 0.024159865453839302, 0.0706738829612732, 0.03723582252860069, -0.038396239280700684, -0.013466276228427887, -0.23170900344848633, -0.01088269054889679, 0.05345464497804642, -0.007768651470541954, -0.029134083539247513, -0.011021428741514683, 0.010686207562685013, -0.10404492169618607, 0.16783510148525238, -0.17581838369369507, 0.12931455671787262, 0.8549560904502869, 0.33498069643974304, -0.5213460922241211, 0.3783331513404846, 0.2018360048532486, -0.12531925737857819, -0.020465178415179253, 0.6725775599479675, 0.15871880948543549, -0.6592217087745667, -0.44861358404159546, 0.4519204795360565, -0.1914215385913849, 0.5861110687255859, 0.2385706752538681, -0.1720900684595108, 0.02573639340698719, 0.18996936082839966, 0.0676119476556778, -0.06467026472091675, -0.2867065668106079, -0.009691057726740837, -0.055299777537584305, 0.3292534351348877, -0.13774240016937256, 0.013044686056673527, -0.007108884397894144, 0.17756661772727966, -0.01344728097319603, 0.22022929787635803, -0.03471801429986954, 0.09885632246732712, 0.16745120286941528, 0.10624448210000992, 0.026495717465877533, -0.035951271653175354, 0.19243986904621124, -0.029776742681860924, -0.11738099902868271, -0.004490635823458433, -0.021053342148661613, -0.03562769293785095, -0.0910104513168335, 0.0420614518225193, -0.08854904770851135, -0.011924056336283684, -0.28217628598213196, 0.008225920610129833, 0.03800440952181816, 0.009083941578865051, 0.06301598250865936, 0.037852510809898376, -0.0001030588464345783, -0.059600066393613815, 0.0652076005935669, 0.012527529150247574, 0.05089309811592102, 0.008530592545866966, 0.02556997537612915, -0.07432746887207031, 0.0881885215640068, -0.039001867175102234, -0.046586647629737854, 0.033536627888679504, 0.010027870535850525, 0.10276471078395844, 0.26846665143966675, 0.14140081405639648, -0.17448680102825165, 0.07494082301855087, -0.0740061029791832, -0.0040553719736635685, -0.03920184075832367, -0.08532480895519257, 0.024564474821090698, -0.047158967703580856, 0.11975450068712234, 0.06441564112901688, -0.16346298158168793, -0.10683116316795349, 0.3124622404575348, 0.21508927643299103, -0.023236338049173355, -0.10686659067869186, -0.08322502672672272, -0.0125051224604249, -0.113658607006073, 0.11916520446538925, 0.014507865533232689, 0.018551643937826157, 0.06581519544124603, -0.11865457147359848, 0.02861379273235798, -0.03441722318530083, -0.3867107927799225, 0.0018848846666514874, -0.04626123979687691, 0.0955912321805954, 0.007785471621900797, -0.01703338511288166, -0.08224384486675262, -0.0981261283159256, -0.06531127542257309, 0.061191756278276443, -0.011159645393490791, 0.09094289690256119, 0.07446397840976715, 0.1373019814491272, 0.004753434099256992, 0.09869716316461563, 0.010581335984170437, -0.11207708716392517, -0.24053198099136353, -0.0027164772618561983, 0.02967941015958786, 0.15329377353191376, -0.3735426664352417, -0.00940320547670126, 0.010002813301980495, 0.5386864542961121, -0.06662839651107788, -0.29717904329299927, -0.02015683241188526, 0.2292110025882721, 0.07388032972812653, 0.2609596848487854, -0.11003568023443222, 0.18494553864002228, -0.22241561114788055, -0.24540436267852783, -0.1938200294971466, 0.2819519639015198, -0.17468304932117462, -0.03905262053012848, 0.007048004772514105, 0.08525171875953674, -0.32299989461898804, -0.9306808114051819, 0.16580727696418762, 0.5146437287330627, -0.10178255289793015, 0.5376203060150146, -0.7054083347320557, 0.4164210259914398, 0.07065366953611374, -0.03956301882863045, -0.045756787061691284, -0.010560655035078526, 0.012490186840295792, -0.07873818278312683, -0.05908052995800972, 0.022744452580809593, 0.06169195473194122, 0.04149738326668739, 0.005004175007343292, 0.021847408264875412, 0.02088341675698757, 0.021323176100850105, 0.009857299737632275, -0.005717048887163401, 0.01358234416693449, 0.06176828593015671, 0.018470188602805138, -0.0077318549156188965, -0.005220220424234867, -0.10664042830467224, -0.08251930773258209, -0.02438994124531746, -0.047456882894039154, -0.0003284951962996274, -0.019014649093151093, -0.09971857070922852, 0.09131798893213272, 0.15718574821949005, -0.014227165840566158, -0.10026515275239944, -0.013483424670994282, 0.021100707352161407, -0.013574453070759773, 0.04787374660372734, 0.0024203420616686344, -0.03533380106091499, 0.019117062911391258, 0.030162448063492775, 0.016830412670969963, -0.036683063954114914, -0.04868131875991821, 0.03217477723956108, 0.03439333662390709, -0.011252650059759617, -0.044603101909160614, -0.08380647003650665, -0.03757058456540108, 0.018666334450244904, 0.1145608127117157, 0.061781954020261765, -0.15360227227210999, 0.09262755513191223, -0.04463408142328262, 0.013739456422626972, 0.016694163903594017, -0.0893501490354538, -0.009780260734260082, -0.10397747904062271, 0.015074950642883778, 0.04885285347700119, -0.2654346823692322, -0.06456295400857925, 0.20438437163829803, 0.3705505430698395, 0.060723721981048584, 0.2853260934352875, 0.01047285832464695, 0.057810526341199875, 0.19113226234912872, 0.34564459323883057, -0.6577392220497131, -0.1476728916168213, -0.21900233626365662, -0.20997853577136993, 0.17568384110927582, -0.409775048494339, -0.200238898396492, -0.15268121659755707, 0.013589667156338692, 0.07606778293848038, 0.08542125672101974, 0.00226232479326427, 0.006948566064238548, 0.048627350479364395, 0.0021157357841730118, 0.032523877918720245, 0.030317561700940132, 0.0017025091219693422, 0.04275895655155182, 0.06308875977993011, 0.008848744444549084, 0.02335798740386963, -0.05290805548429489, -0.04386604204773903, -0.05056816712021828, -0.06825977563858032, -0.01782294735312462, 0.22473393380641937, -0.008556967601180077, -0.025243787094950676, 0.07463755458593369, -0.020643966272473335, -0.0446854904294014, 0.03399483859539032, 0.10717665404081345, 0.030391264706850052, 0.01662975549697876, 0.039096541702747345, -0.17537876963615417, 0.020861750468611717, 0.03797148913145065, 0.2821815311908722, -0.011156576685607433, -0.07539085298776627, -0.030328771099448204, 0.04539244994521141, -0.058830056339502335, -0.026153549551963806, 0.1933337152004242, -0.16558603942394257, 0.03877202048897743, -0.11818257719278336, 0.012988255359232426, 0.25672218203544617, 0.0487971194088459, -0.025839759036898613, 0.01930202730000019, 0.039922092109918594, 0.07619501650333405, -0.019241085276007652, -0.041556328535079956, -0.08340393751859665, -0.023519935086369514, -0.006892910227179527, 0.09296686947345734, 0.05553261935710907, 0.008173786103725433, 0.07316052168607712, -0.016711102798581123, 0.028227195143699646, -0.002068884205073118, -0.029076674953103065, -0.009798341430723667, 0.0537913516163826, 0.03460931405425072, 0.06559529155492783, -0.09247597306966782, 0.11655626446008682, 0.1284300833940506, 0.0575869083404541, 0.11104849725961685, -0.18234127759933472, -0.0591479130089283, -0.3713904023170471, 0.28666090965270996, 0.10117749869823456, -0.33080363273620605, 0.0018679273780435324, 0.1799352765083313, 0.10016452521085739, -0.035721249878406525, -0.021282238885760307, -0.032657552510499954, -0.08989735692739487, 0.019999060779809952, 0.01832280494272709, 0.061093010008335114, -0.06589628010988235, -0.0591132715344429, -0.0058510261587798595, 0.09411747008562088, 0.11985056102275848, -0.21259218454360962, -0.08220736682415009, 0.22302572429180145, 0.42617282271385193, -0.014785828068852425, 0.7964215874671936, -0.6156731247901917, -0.07068879902362823, 0.001534746610559523, -0.09633097052574158, -0.10907293111085892, -0.18695196509361267, 0.18576662242412567, 0.25916123390197754, -0.07466535270214081, 0.41967475414276123, -0.3560747504234314, -0.18792419135570526, -0.04484526813030243, 0.10496635735034943, 0.016961846500635147, -0.2298841029405594, 0.1259678602218628, 0.019121788442134857, -0.049079637974500656, 0.09459609538316727, 0.24030445516109467, -0.0867687314748764, -0.15109194815158844, 0.0934591069817543, -0.062410853803157806, 0.27404361963272095, 0.2696288228034973, 0.2759636640548706, 0.29426971077919006, 0.08621165156364441, -0.2660275101661682, -0.1059487834572792, -0.2172461599111557, 0.024649932980537415, -0.11928743869066238, 0.050732143223285675, 0.09291014820337296, -0.0322117879986763, 0.11758780479431152, -0.0854257121682167, 0.18014171719551086, -0.10116560012102127, -0.36999768018722534, -0.15787389874458313, 0.22278787195682526, 0.5011854767799377, 0.07352012395858765, 0.6579814553260803, -0.3170328140258789, -0.020387690514326096, -0.07837359607219696, 0.49550047516822815, -0.3482136130332947, -0.29233086109161377, -0.05501584708690643, 0.1364317387342453, 0.04185234010219574, -0.21568775177001953, -0.30824220180511475, -0.10712138563394547, -0.15830351412296295, 0.009732918813824654, -0.1335611492395401, -0.03949357941746712, 0.08287797123193741, -0.00975071545690298, -0.020611334592103958, 0.020207630470395088, 0.2225228250026703, -0.14214757084846497, 0.04906747490167618, 0.16633376479148865, 0.008029102347791195, 0.28621768951416016, -0.11448609083890915, 0.13665401935577393, -0.11994745582342148, 0.8188562393188477, 0.03012814372777939, 0.49753186106681824, -0.5152135491371155, 0.010263362899422646, -0.09644323587417603, 0.02402348816394806, -0.47907254099845886, -0.24040494859218597, -0.278761625289917, 0.03441740944981575, -0.010523262433707714, 0.06825654953718185, -0.19393663108348846, -0.20545007288455963, 0.25663673877716064, 0.690346360206604, -0.03218292072415352, 0.5398539304733276, -0.2501349449157715, 0.07243787497282028, 0.14789365231990814, -0.12045090645551682, -0.20742152631282806, -0.19931289553642273, -0.20931188762187958, 0.5032816529273987, 0.10292259603738785, -0.14598891139030457, -0.3512488305568695, -0.26320064067840576, 0.07727392017841339, 0.033847372978925705, 0.09378547221422195, -0.05376534163951874, 0.1274334341287613, -0.08132404088973999, -0.009720590896904469, 0.021955173462629318, -0.05589543282985687, -0.024932801723480225, -0.08059089630842209, 0.1246514543890953, -0.038389310240745544, 0.06329880654811859, -0.10418202728033066, -0.07208079099655151, -0.04500754550099373, 0.004434339236468077, 0.07133070379495621, 0.03344129025936127, -0.060919005423784256, -0.06448379158973694, -0.08658512681722641, 0.014785317704081535, 0.05019455403089523, 0.04255283623933792, 0.013727664947509766, 0.07912760972976685, -0.025490375235676765, 0.051332563161849976, -0.01804150827229023, 0.032965175807476044, };
const size_t _0_0_ln2_bias_len = 16;
__attribute__ ((aligned(4)))
const float _0_0_ln2_bias[] ={0.09812042117118835, 0.00649145757779479, -0.018372967839241028, -0.07064474374055862, 0.09601521492004395, -0.042697787284851074, 0.0012082577450200915, -0.21743768453598022, -0.02812170796096325, 0.003469244111329317, 0.2101806402206421, 0.007222640793770552, -0.033784057945013046, -0.09563872218132019, 0.12259320914745331, 0.0114653455093503, };
const size_t _0_0_ln2_weight_len = 16;
__attribute__ ((aligned(4)))
const float _0_0_ln2_weight[] ={0.4786902964115143, 0.41239744424819946, 0.24336543679237366, 0.7334180474281311, 0.30090370774269104, 0.03682192042469978, 0.03855322301387787, 0.5967110991477966, 0.47157931327819824, 0.6115946769714355, 0.0992807000875473, 0.6719427108764648, 0.07314738631248474, 0.8295144438743591, -0.6398748755455017, 0.3962499797344208, };
const size_t _0_0_sa_proj_bias_len = 16;
__attribute__ ((aligned(4)))
const float _0_0_sa_proj_bias[] ={-0.09146428108215332, -0.2651829719543457, 0.042098965495824814, 0.05455664545297623, 0.06672187894582748, 0.10538888722658157, 0.2803041338920593, -0.19749759137630463, -0.03194097802042961, 0.017057474702596664, 0.14818890392780304, 0.05230268836021423, 0.04707184433937073, 0.021275704726576805, 0.19585895538330078, 0.16432353854179382, };
const size_t _0_0_sa_proj_weight_len = 256;
__attribute__ ((aligned(4)))
const float _0_0_sa_proj_weight[] ={-0.005422049202024937, -0.23449498414993286, 0.03319096192717552, -0.18265366554260254, -0.05203551426529884, 0.1318298727273941, -0.06286867707967758, 0.026137785986065865, 0.08906269073486328, -0.020942265167832375, 0.03782420977950096, -0.2669990062713623, -0.005625917576253414, -0.1235937550663948, -0.0622812919318676, -0.05419307202100754, 0.08668816834688187, 0.14399529993534088, 0.2614864110946655, 0.18013428151607513, -0.10544269531965256, -0.06308720260858536, 0.007279963698238134, -0.5627117156982422, -0.08065830916166306, -0.06489832699298859, 0.015889259055256844, -0.012931224890053272, 0.007521684281527996, 0.03850649669766426, -0.006707264110445976, 0.008996020071208477, 0.09281499683856964, 0.0258292518556118, 0.20555146038532257, 0.07358504086732864, -0.00832783617079258, -0.16786712408065796, 0.08207788318395615, -0.281925231218338, -0.25781184434890747, 0.029096826910972595, 0.007504256442189217, -0.07065307348966599, 0.19234122335910797, 0.02798427827656269, 0.15814273059368134, 0.1066887378692627, 0.08514551818370819, -0.05342796444892883, -0.17021724581718445, -0.014534717425704002, -0.019042672589421272, -0.14731410145759583, -0.11902501434087753, 0.0541158951818943, -0.12442516535520554, 0.07787115126848221, 0.09250069409608841, -0.07978120446205139, -0.12162066996097565, 0.2620212435722351, 0.0401325449347496, 0.17345409095287323, 0.004577763378620148, -0.10140978544950485, -0.013784403912723064, -0.1646706610918045, -0.011676651425659657, 0.007610022556036711, 0.07339193671941757, -0.15343926846981049, -0.04787835478782654, 0.038771577179431915, -0.0060257152654230595, -0.2277226448059082, -0.09277717769145966, -0.053271930664777756, 0.022580919787287712, -0.0926867201924324, -0.013554687611758709, 0.10101412981748581, 0.1524277925491333, 0.1802019625902176, 0.14008717238903046, 0.002975438954308629, 0.14319051802158356, -0.2677767276763916, 0.13424727320671082, 0.10906437784433365, 0.0016322662122547626, -0.0572512224316597, 0.052620045840740204, 0.006826300639659166, 0.004006158094853163, 0.0615040622651577, -0.16069667041301727, -0.41768038272857666, -0.09389106184244156, -0.21710094809532166, 0.012642833404242992, 0.15109658241271973, -0.0278703011572361, 0.4302602708339691, 0.2196090817451477, 0.09426643699407578, 0.01732083410024643, -0.2845863699913025, 0.040217094123363495, -0.04926079884171486, -0.15463778376579285, -0.21432431042194366, -0.003921114839613438, 0.36395177245140076, -0.15012888610363007, 0.6940168738365173, 0.10312869399785995, -0.01190421637147665, 0.09442175179719925, -0.5151537656784058, 0.1521455943584442, 0.12798340618610382, -0.053748968988657, 0.0007706622709520161, 0.013560961931943893, -0.022455131635069847, -0.0305467676371336, 0.007315297145396471, -0.02874770388007164, -0.04856877401471138, -0.07602017372846603, 0.07310990989208221, -0.041914090514183044, 0.025486955419182777, -0.08415153622627258, -0.326094388961792, 0.25911012291908264, 0.10090194642543793, 0.08746274560689926, -0.14129343628883362, 0.07466740906238556, -0.07458875328302383, -0.05455305427312851, -0.05200556665658951, 0.06628072261810303, 0.1584191471338272, -0.013907993212342262, 0.014381702058017254, 0.008652162738144398, 0.023468930274248123, 0.07777976244688034, 0.18642449378967285, -0.009442833252251148, -0.05649075284600258, -0.05104450881481171, 0.2984217703342438, -0.006013145670294762, -0.06670526415109634, -0.0021216191817075014, -0.05310425907373428, -0.07420097291469574, -0.3355763852596283, 0.09432148188352585, -0.24765972793102264, -0.11306025832891464, 0.26098087430000305, -0.1907733678817749, 0.3922380805015564, 0.17212294042110443, 0.12135501205921173, 0.13300254940986633, -0.26721110939979553, -0.0666443407535553, -0.026716474443674088, -0.12936212122440338, -0.1274213045835495, 0.061924003064632416, -0.011730983853340149, 0.00107223866507411, 0.15172851085662842, -0.11891261488199234, 0.03468816727399826, -0.061192385852336884, 0.03876326233148575, -0.1037374809384346, -0.08782552182674408, 0.05245612561702728, -0.07813409715890884, -0.06881722807884216, -0.017893899232149124, 0.1401602327823639, 0.05306311324238777, 0.04054702818393707, 0.07523055374622345, 0.0673060417175293, 0.22698134183883667, 0.16647356748580933, -0.052792247384786606, 0.13792531192302704, -0.2787743806838989, 0.00452722143381834, 0.02991338074207306, -0.03282451629638672, -0.02873244136571884, 0.10323388874530792, -0.08363138139247894, 0.05854507163167, 0.1006159707903862, -0.05960460752248764, -0.030618075281381607, -0.0714375451207161, 0.14783522486686707, -0.10045545548200607, 0.10940241068601608, -0.1027689054608345, -0.08301036059856415, 0.039975084364414215, 0.08653682470321655, 0.09245580434799194, -0.10438656806945801, -0.10890692472457886, -0.08865930140018463, -0.06331019103527069, -0.0646122545003891, -0.033745888620615005, -0.010846098884940147, -0.0612240768969059, -0.030555831268429756, 0.01854006014764309, -0.11265713721513748, -0.0442645363509655, 0.13017621636390686, 0.020299483090639114, 0.15825873613357544, 0.06976936757564545, -0.09388089179992676, -0.17758944630622864, 0.12191937118768692, -0.17688007652759552, 0.014156182296574116, 0.06735871732234955, -0.05552751570940018, 0.08384925872087479, 0.10013408213853836, 0.026613274589180946, -0.0373929925262928, 0.17221826314926147, 0.035248711705207825, 0.029985828325152397, -0.019065920263528824, -0.06039299815893173, -0.17482323944568634, 0.014009443111717701, -0.10904273390769958, 0.022185975685715675, -0.04758373275399208, };
const size_t _0_0_sa_head_value_weight_len = 256;
__attribute__ ((aligned(4)))
const float _0_0_sa_head_value_weight[] ={-0.028332393616437912, -0.08946235477924347, -0.026948848739266396, -0.02630445919930935, 0.07711858302354813, -0.07034548372030258, 0.039718952029943466, 0.07428047060966492, -0.04630162566900253, -0.007297134958207607, 0.0016652263002470136, -0.207455113530159, 0.021224064752459526, 0.04966069757938385, -0.05399365723133087, -0.08616459369659424, 0.253464937210083, 0.19292052090168, 0.4386168420314789, -0.021625978872179985, -0.011872099712491035, -0.03960825130343437, 0.4995534420013428, -0.1800151765346527, 0.25508907437324524, -0.513729453086853, 0.21424289047718048, -0.040747903287410736, 0.0018202993087470531, 0.4383350610733032, 0.03560108691453934, 0.5829871892929077, 0.09746668487787247, -0.11400928348302841, 0.24612165987491608, 0.07228657603263855, 0.10703558474779129, 0.1486184448003769, 0.20577724277973175, 0.07009682804346085, -0.1889883130788803, 0.08168736845254898, -0.04194880649447441, -0.2806374728679657, 0.01926867477595806, -0.007860866375267506, 0.11960023641586304, 0.2643663287162781, -0.1877824366092682, 0.4271612763404846, 0.18390372395515442, 0.06905118376016617, -0.22576411068439484, -0.042660050094127655, 0.1078406423330307, -0.3863992393016815, 0.2424531877040863, -0.03538805991411209, 0.21212610602378845, 0.395699143409729, -0.03224889934062958, 0.25265413522720337, 0.07605741173028946, 0.3338583707809448, -0.03481396287679672, -0.08647006005048752, 0.02403695322573185, -0.09080998599529266, 0.01571614108979702, -0.17915187776088715, -0.05213822424411774, -0.08648136258125305, 0.07073962688446045, -0.010579075664281845, 0.02234998345375061, 0.07642139494419098, -0.008729279041290283, -0.23717954754829407, -0.0974472239613533, -0.1556137353181839, -0.00028895330615341663, 0.04947713389992714, -0.0326424203813076, -0.013738822191953659, 0.021806100383400917, 0.012216305360198021, -0.04524286836385727, -0.106550432741642, 0.02834361419081688, 0.09852996468544006, -0.042993851006031036, 0.1802932769060135, 0.003515011863783002, 0.0995379388332367, 0.0970521941781044, 0.13149061799049377, 0.021365104243159294, -0.10419842600822449, 0.07158805429935455, -0.12999963760375977, 0.005102881230413914, -0.19872158765792847, 0.02480490878224373, -0.08697104454040527, 0.008993844501674175, 0.20873720943927765, -0.015340069308876991, -0.1903616487979889, -0.010307807475328445, -0.13260357081890106, -0.1563217043876648, -0.06800372153520584, 0.727820634841919, -0.2179662436246872, 0.5426802635192871, 0.09170699864625931, 0.1857619434595108, -0.026510635390877724, 0.10005275905132294, 0.18774792551994324, 0.24270227551460266, -0.3293606638908386, 0.05706910043954849, -0.11060412228107452, -0.07828854024410248, 0.19801409542560577, 0.12064474821090698, 0.5709545016288757, 0.0249943807721138, 0.07980425655841827, 0.07967016845941544, 0.07237601280212402, -0.10792410373687744, -0.007943656295537949, -0.07447874546051025, -0.17790916562080383, 0.08528999239206314, 0.1315433233976364, -0.018911411985754967, 0.29208818078041077, -0.03373485431075096, 0.04965559393167496, 0.10953094810247421, 0.10670763999223709, 0.07579025626182556, 0.09999743103981018, -0.007271491922438145, 0.09093579649925232, -0.14085301756858826, -0.049678657203912735, -0.07346215844154358, -0.1070311889052391, 0.08750879764556885, -0.005770746618509293, 0.06782694160938263, 0.09534963965415955, 0.08985671401023865, -0.16411881148815155, 0.04953523725271225, -0.0801391452550888, 0.02078273519873619, 0.07624182105064392, -0.027650780975818634, 0.0027488006744533777, -0.11660227179527283, 0.06007702276110649, -0.00618577329441905, 0.01998930424451828, -0.029495565220713615, -0.07362068444490433, 0.184428408741951, -0.008360035717487335, -0.058796919882297516, 0.04041416943073273, 0.09480179846286774, 0.0517180860042572, 0.5423890352249146, 0.09143191576004028, 0.4235224425792694, 0.042650651186704636, -0.013334064744412899, -0.12906259298324585, 0.5870169997215271, -0.12791813910007477, 0.2549441456794739, -0.588683009147644, 0.11566262692213058, -0.09128809720277786, 0.022125011309981346, 0.3928813338279724, 0.042671509087085724, 0.5689299702644348, -0.03013967163860798, -0.08324124664068222, 0.04311198741197586, -0.12747985124588013, -0.021168041974306107, -0.10718196630477905, 0.03014196641743183, -0.11359626799821854, 0.0415700227022171, 0.09974349290132523, -0.11655418574810028, -0.03437088057398796, -0.17377111315727234, -0.012945081107318401, -0.19041189551353455, 0.020732736214995384, -0.05432651937007904, -0.07474272698163986, -0.058241959661245346, 0.053961195051670074, 0.0555264912545681, 0.23929302394390106, -0.01865769736468792, 0.07792138308286667, 0.03458590433001518, -0.21136116981506348, 0.03583454713225365, -0.15258543193340302, -0.019206972792744637, -0.03141242265701294, -0.05208403617143631, -0.17096175253391266, 0.07424166053533554, -0.10191555321216583, -0.04059319570660591, -0.04246651753783226, -0.09107326716184616, -0.08463584631681442, 0.010938714258372784, -0.11914309114217758, -0.06934617459774017, 0.11177614331245422, 0.1774497777223587, -0.09383229166269302, 0.009064889512956142, 0.05195034295320511, -0.0490860641002655, -0.06067783758044243, -3.535747237037867e-05, -0.03326256200671196, -0.07607410103082657, -0.07601866126060486, -0.014122852124273777, -0.02926325984299183, 0.01938616670668125, 0.038053903728723526, 0.037312548607587814, -0.1233290284872055, -0.057513847947120667, -0.032892659306526184, -0.06068355590105057, -0.04545264691114426, 0.04405876249074936, -0.14528845250606537, };
const size_t _0_0_sa_head_query_weight_len = 256;
__attribute__ ((aligned(4)))
const float _0_0_sa_head_query_weight[] ={-0.9348112940788269, 0.1664498746395111, -0.6472224593162537, -0.3129112720489502, 0.379901647567749, -0.11019661277532578, -0.31278467178344727, 0.6119161248207092, -0.3686373829841614, 0.661558985710144, 0.26184335350990295, 0.48279961943626404, -0.03814275935292244, 0.2990363836288452, -0.3203648626804352, -0.6980109810829163, 0.8108726143836975, 0.9220439791679382, -1.5984017848968506, 0.020044192671775818, -0.0125926174223423, 0.3417043089866638, -0.8427303433418274, -0.995928943157196, -0.37543830275535583, 0.10432319343090057, -0.2861171066761017, -0.1703774333000183, -0.044861216098070145, -1.3638378381729126, -0.024996275082230568, 0.5427773594856262, -1.1963380575180054, 0.6599519848823547, -1.068162441253662, -0.043763820081949234, 0.30416932702064514, 0.18642973899841309, 0.24477216601371765, 0.5657663345336914, -1.1014329195022583, 0.6211920380592346, 0.2642258107662201, 0.44285550713539124, 0.13183213770389557, -0.5424741506576538, -0.11702253669500351, -0.8334654569625854, 0.2908684313297272, 0.9434013366699219, -1.7314732074737549, -0.24348939955234528, 0.05466524139046669, 0.37828075885772705, -0.44086626172065735, -0.5816885828971863, -0.8382294178009033, 0.6545975804328918, 0.03029334358870983, 0.22598756849765778, -0.07212945073843002, -1.3418282270431519, -0.2951015830039978, -0.05271792411804199, 0.110855333507061, 0.28022581338882446, -0.3627627193927765, 0.1632245033979416, -0.5435881614685059, -0.11827675998210907, 0.3401576280593872, 0.42901718616485596, 0.004814693238586187, -0.2687883675098419, 0.514151930809021, 1.1456224918365479, -0.0828186422586441, -0.8282286524772644, 0.31251657009124756, -0.02333524078130722, -0.505995512008667, 0.6732220649719238, -0.2921198904514313, 0.16231106221675873, -0.4827798902988434, 0.2742270827293396, -1.4666200876235962, -0.14433535933494568, 0.27584192156791687, 0.18809770047664642, -0.22379599511623383, -0.33382001519203186, 0.048991601914167404, -0.3160794973373413, 0.29842644929885864, -0.016498306766152382, 0.20494143664836884, -0.870069146156311, 1.7085227966308594, 0.03719065338373184, -0.1804492473602295, -0.10514609515666962, -0.10696057230234146, -0.15122239291667938, 1.073624610900879, -0.24692603945732117, 0.025686655193567276, -0.38061296939849854, -0.07248088717460632, 0.9208048582077026, 0.13993380963802338, 0.43685802817344666, 0.7411648035049438, 0.09714597463607788, -0.05393822491168976, -0.23772427439689636, -0.22868089377880096, -0.13019059598445892, -0.23109205067157745, -0.6800405383110046, 0.3269708752632141, -0.0661732405424118, -0.023214349523186684, -0.05929645523428917, 0.04795529693365097, -0.6639980673789978, -0.20511551201343536, 0.8621941208839417, 0.1171090304851532, 0.7732555866241455, -1.0734198093414307, -0.25771060585975647, 0.03529886528849602, -0.12013178318738937, -0.10326935350894928, -0.13769182562828064, -0.533297061920166, 0.21959009766578674, 0.0944061204791069, 0.9581435918807983, -0.08683205395936966, -1.0827068090438843, -0.31594187021255493, -0.28088924288749695, 0.6563082933425903, 0.17154912650585175, -0.6016473770141602, -0.09425380080938339, 0.020829027518630028, 0.15809844434261322, 1.0916481018066406, -0.30774977803230286, -0.35885077714920044, -0.378614604473114, 0.013065708801150322, 0.14775450527668, 0.17609749734401703, -0.852438747882843, -0.04350029304623604, 0.16870956122875214, -0.0313444547355175, 0.25003576278686523, -0.2518058121204376, 0.1477038413286209, -0.35768309235572815, -0.00895166676491499, 0.30026745796203613, 0.38647371530532837, -0.2909892499446869, -0.32928919792175293, 0.5648342370986938, 1.3029248714447021, -0.07357346266508102, -0.736659586429596, 0.22703051567077637, -0.16919086873531342, -0.8431849479675293, 0.507786214351654, -0.4714837074279785, 0.14571434259414673, -0.20296843349933624, 0.04586762934923172, -0.8017236590385437, 0.2444869875907898, -0.0388701930642128, 0.37333622574806213, -0.04859267175197601, 0.02474193274974823, -0.04021122306585312, 0.03909732401371002, 0.2271045446395874, -0.31718897819519043, 0.5379392504692078, 0.8749430179595947, -1.3339000940322876, -0.022658156231045723, 0.00048394911573268473, 0.16996073722839355, -0.4264204204082489, -0.6533927917480469, -0.45175185799598694, 0.2144581377506256, -0.22071997821331024, 0.30737754702568054, -0.043829962611198425, -1.216357707977295, -0.19607439637184143, 0.14322037994861603, 0.31277498602867126, -0.14271607995033264, -0.7618880271911621, -0.9102767705917358, 0.7525647282600403, -0.3956943154335022, -0.7924162745475769, -0.8860841393470764, -0.3052060306072235, 1.1215511560440063, 0.16382981836795807, 0.21681272983551025, 0.082632876932621, -0.4464055299758911, -1.0378589630126953, 0.37996146082878113, -0.6252950429916382, 0.847298800945282, -1.1502436399459839, 0.04566754773259163, -0.10052677989006042, 0.33628398180007935, 0.11337903887033463, 0.15542447566986084, -0.8555253148078918, 0.4428398907184601, -0.007451404817402363, 0.6064664721488953, 0.08094397932291031, -0.7297341227531433, -0.05343307927250862, -0.6770294904708862, 0.829782247543335, -0.46908286213874817, 0.2240653932094574, -0.25672978162765503, 0.3750600814819336, -0.13295811414718628, 1.4043489694595337, -0.3087885081768036, -0.2082611322402954, -0.3015229403972626, 0.10760988295078278, 0.21468493342399597, 0.0536222942173481, -0.12091086059808731, -0.2866412401199341, 0.21440577507019043, };
const size_t _0_0_sa_head_key_weight_len = 256;
__attribute__ ((aligned(4)))
const float _0_0_sa_head_key_weight[] ={0.33490052819252014, -0.2410145252943039, -1.1547647714614868, -0.008498862385749817, -0.15061432123184204, -0.08339439332485199, 0.9517388939857483, -0.33466821908950806, -0.0783291608095169, -0.25415992736816406, -0.134194478392601, -0.3274752199649811, -0.1485830694437027, 0.7674130797386169, 0.02829718589782715, 0.5416661500930786, -0.13326723873615265, 1.4489339590072632, -0.45714208483695984, 0.028161287307739258, 0.5260774493217468, 0.6692085266113281, -0.451271653175354, -1.966873049736023, 0.5347243547439575, -0.1796199232339859, -0.36503854393959045, -0.8860374689102173, -0.08637551218271255, -0.2724980413913727, -0.2006853222846985, 1.7122653722763062, 0.031851183623075485, -0.4810695946216583, -0.1073785275220871, -0.5229870676994324, 0.1348874568939209, -0.46898654103279114, 1.9157770872116089, -0.8822327852249146, 0.21814939379692078, 0.21268031001091003, -0.23778967559337616, -1.2588427066802979, -0.011384876444935799, 0.18406417965888977, -0.6619132161140442, 0.7563959360122681, -0.19229324162006378, 1.1539371013641357, -0.7394304871559143, -0.3121754825115204, 0.44945818185806274, 0.47245219349861145, 0.2670117914676666, -2.2132582664489746, 0.19135735929012299, -0.07734299451112747, -0.5061593055725098, -1.6136634349822998, 0.07507301867008209, -0.0704420953989029, -0.4351341724395752, 2.0170016288757324, -1.1591705083847046, -0.034452665597200394, 0.7401137948036194, -0.16916440427303314, 0.27926763892173767, -0.06717828661203384, 0.9149165749549866, -1.3519737720489502, -0.3760088086128235, 0.44869178533554077, -0.09353076666593552, -0.09158463776111603, 0.10490645468235016, -0.5357121229171753, -0.2906603515148163, -0.24564002454280853, 0.3549060523509979, 1.021019458770752, 0.1182897612452507, 0.9612197279930115, -0.8061403632164001, 0.792062520980835, 0.09456837922334671, -0.9171671867370605, 0.43749693036079407, -1.4728846549987793, -0.3708318769931793, 0.25317174196243286, 0.10786403715610504, 0.10538759082555771, 0.7316134572029114, 0.4679054021835327, 0.15918882191181183, -0.43240997195243835, 0.17659276723861694, 0.9024721384048462, -0.6887511610984802, 0.20760996639728546, -0.939001202583313, 1.7137014865875244, -0.2929612398147583, 0.05394411459565163, 0.3948807418346405, 1.4173866510391235, 0.02605038695037365, 0.16642670333385468, 0.8813814520835876, -1.3935723304748535, 0.03176103159785271, 0.7510250210762024, -0.2836977541446686, -0.008008303120732307, 0.4133812189102173, 0.18237744271755219, -0.5574160814285278, -0.6709027886390686, -0.05261317268013954, 0.05825154483318329, -0.17508330941200256, -0.41073712706565857, 0.015614728443324566, -0.09404338896274567, -0.024350427091121674, 0.1970517933368683, -0.25680646300315857, 0.42634379863739014, -0.08108130097389221, -0.7497967481613159, 0.6166106462478638, -0.06834416091442108, 0.5541359186172485, -1.988815188407898, 0.38501405715942383, 0.22884520888328552, -0.36940616369247437, -0.9508770108222961, -0.059445932507514954, 0.0075005595572292805, -0.7259619235992432, 1.615277647972107, -0.4181210398674011, 0.18726013600826263, 0.5894520282745361, -0.915717363357544, 0.7632709741592407, -0.1956050992012024, 0.1218811646103859, -0.7995864748954773, -0.11166992783546448, 0.8389250636100769, -0.1911844164133072, -0.769750714302063, 0.16372619569301605, -0.9173001646995544, -0.8611286282539368, 0.18337927758693695, -1.3912616968154907, -0.27268165349960327, 0.5077939629554749, -0.08196751773357391, 0.07754528522491455, -0.16242223978042603, 1.019960880279541, -0.9447172284126282, -0.037531569600105286, 0.4109855890274048, -0.048893459141254425, 0.18450041115283966, 0.018490644171833992, -0.20378245413303375, -0.17786850035190582, -0.11328097432851791, 0.3557124435901642, 0.2050299346446991, -0.26188209652900696, 0.5447462201118469, -0.6425530910491943, 0.22947028279304504, 0.4922635853290558, -0.7860348224639893, 0.4606552720069885, -1.0950536727905273, -0.3135947585105896, 0.1333351880311966, 0.02972395531833172, 0.4781630039215088, 0.5220305323600769, 0.6975653171539307, -0.10538260638713837, 1.0865195989608765, -0.2341068685054779, -0.23426175117492676, 0.5546197891235352, 0.34673067927360535, -0.1281508356332779, -1.8257198333740234, 0.5928381681442261, -0.04899100214242935, -0.3959137201309204, -1.1767845153808594, -0.11525186151266098, -0.19509896636009216, -0.4196781814098358, 1.6988797187805176, 0.0665198266506195, 0.6373419165611267, -1.5697877407073975, 0.24521462619304657, 0.26217353343963623, 0.3769993185997009, -0.45876604318618774, -0.6264898777008057, -0.48223331570625305, 0.033193230628967285, -0.16049635410308838, -0.6580867171287537, 0.034846190363168716, 0.5016415119171143, 0.11417452245950699, 0.3794311285018921, -0.16572143137454987, -0.1523430496454239, 0.42187902331352234, -0.48891788721084595, 0.12597544491291046, -0.2527703642845154, 1.3970022201538086, -1.0947226285934448, 0.5533086657524109, 0.0032802182249724865, -0.27469301223754883, -1.1061813831329346, 0.09217679500579834, -0.1238330528140068, -0.5671202540397644, 1.1986294984817505, -0.6613439321517944, -0.6047003865242004, 0.2913152575492859, -1.1605725288391113, 1.0072412490844727, -0.6955220699310303, -0.2556726932525635, 0.2740862965583801, -0.3651546239852905, 1.8452088832855225, 0.49087411165237427, -0.20642969012260437, -0.10661044716835022, -0.5599002242088318, -1.0152239799499512, -0.35187894105911255, };
const size_t _0_0_ln1_bias_len = 16;
__attribute__ ((aligned(4)))
const float _0_0_ln1_bias[] ={-0.25220370292663574, 0.16303911805152893, -0.1850842386484146, 0.19903211295604706, -0.37879478931427, 0.11831742525100708, -0.2959325611591339, 0.8660053014755249, -0.19666524231433868, -0.9612473249435425, 0.17627759277820587, 0.3898524343967438, 0.020400218665599823, 0.3462962210178375, 0.23843999207019806, 0.28564929962158203, };
const size_t _0_0_ln1_weight_len = 16;
__attribute__ ((aligned(4)))
const float _0_0_ln1_weight[] ={0.6839492321014404, 1.0254597663879395, 1.5091545581817627, 0.39532843232154846, 0.28885698318481445, 0.31178784370422363, 1.381818175315857, 0.9468642473220825, 0.8348730802536011, 0.4092520475387573, 0.22708426415920258, 0.8545281887054443, -0.007329139392822981, 0.686416745185852, 0.4429410994052887, 1.0664142370224, };
static const mlmodel_param_t _model_params[] = { 
{.name = "_2_bias",.values = (uint8_t*)_2_bias,.num_bytes = sizeof(_2_bias),.persistent_values = (uint8_t*)_2_bias,.volatile_values = NULL,},
{.name = "_2_weight",.values = (uint8_t*)_2_weight,.num_bytes = sizeof(_2_weight),.persistent_values = (uint8_t*)_2_weight,.volatile_values = NULL,},
{.name = "_1_bias",.values = (uint8_t*)_1_bias,.num_bytes = sizeof(_1_bias),.persistent_values = (uint8_t*)_1_bias,.volatile_values = NULL,},
{.name = "_1_weight",.values = (uint8_t*)_1_weight,.num_bytes = sizeof(_1_weight),.persistent_values = (uint8_t*)_1_weight,.volatile_values = NULL,},
{.name = "_0_0_ffwd_2_bias",.values = (uint8_t*)_0_0_ffwd_2_bias,.num_bytes = sizeof(_0_0_ffwd_2_bias),.persistent_values = (uint8_t*)_0_0_ffwd_2_bias,.volatile_values = NULL,},
{.name = "_0_0_ffwd_2_weight",.values = (uint8_t*)_0_0_ffwd_2_weight,.num_bytes = sizeof(_0_0_ffwd_2_weight),.persistent_values = (uint8_t*)_0_0_ffwd_2_weight,.volatile_values = NULL,},
{.name = "_0_0_ffwd_0_bias",.values = (uint8_t*)_0_0_ffwd_0_bias,.num_bytes = sizeof(_0_0_ffwd_0_bias),.persistent_values = (uint8_t*)_0_0_ffwd_0_bias,.volatile_values = NULL,},
{.name = "_0_0_ffwd_0_weight",.values = (uint8_t*)_0_0_ffwd_0_weight,.num_bytes = sizeof(_0_0_ffwd_0_weight),.persistent_values = (uint8_t*)_0_0_ffwd_0_weight,.volatile_values = NULL,},
{.name = "_0_0_ln2_bias",.values = (uint8_t*)_0_0_ln2_bias,.num_bytes = sizeof(_0_0_ln2_bias),.persistent_values = (uint8_t*)_0_0_ln2_bias,.volatile_values = NULL,},
{.name = "_0_0_ln2_weight",.values = (uint8_t*)_0_0_ln2_weight,.num_bytes = sizeof(_0_0_ln2_weight),.persistent_values = (uint8_t*)_0_0_ln2_weight,.volatile_values = NULL,},
{.name = "_0_0_sa_proj_bias",.values = (uint8_t*)_0_0_sa_proj_bias,.num_bytes = sizeof(_0_0_sa_proj_bias),.persistent_values = (uint8_t*)_0_0_sa_proj_bias,.volatile_values = NULL,},
{.name = "_0_0_sa_proj_weight",.values = (uint8_t*)_0_0_sa_proj_weight,.num_bytes = sizeof(_0_0_sa_proj_weight),.persistent_values = (uint8_t*)_0_0_sa_proj_weight,.volatile_values = NULL,},
{.name = "_0_0_sa_head_value_weight",.values = (uint8_t*)_0_0_sa_head_value_weight,.num_bytes = sizeof(_0_0_sa_head_value_weight),.persistent_values = (uint8_t*)_0_0_sa_head_value_weight,.volatile_values = NULL,},
{.name = "_0_0_sa_head_query_weight",.values = (uint8_t*)_0_0_sa_head_query_weight,.num_bytes = sizeof(_0_0_sa_head_query_weight),.persistent_values = (uint8_t*)_0_0_sa_head_query_weight,.volatile_values = NULL,},
{.name = "_0_0_sa_head_key_weight",.values = (uint8_t*)_0_0_sa_head_key_weight,.num_bytes = sizeof(_0_0_sa_head_key_weight),.persistent_values = (uint8_t*)_0_0_sa_head_key_weight,.volatile_values = NULL,},
{.name = "_0_0_ln1_bias",.values = (uint8_t*)_0_0_ln1_bias,.num_bytes = sizeof(_0_0_ln1_bias),.persistent_values = (uint8_t*)_0_0_ln1_bias,.volatile_values = NULL,},
{.name = "_0_0_ln1_weight",.values = (uint8_t*)_0_0_ln1_weight,.num_bytes = sizeof(_0_0_ln1_weight),.persistent_values = (uint8_t*)_0_0_ln1_weight,.volatile_values = NULL,},
};
const mlmodel_param_t* get_model_params(void) {
return _model_params;
}
